int8_t weights[1033] = {
-20,-10,4,-7,-10,34,17,7,26,-21,22,11,15,-9,22,26,-12,29,2,-4,8,7,10,5,-2,-41,-23,-25,-10,9,-11,-38,
-24,10,-19,-46,19,4,-10,-36,-24,-33,-1,-23,-35,-30,-28,2,-14,3,34,11,31,18,29,24,0,11,59,55,59,62,16,9,
59,10,16,4,20,2,24,57,19,65,60,85,81,-49,82,9,-43,4,34,73,36,45,76,28,66,39,17,-3,-4,-39,49,67,
70,-27,-6,21,-45,-70,62,-55,34,-61,-24,26,31,-51,-12,-62,25,11,6,-8,5,24,57,-5,-29,-6,14,24,58,35,36,91,
84,105,101,-27,22,48,83,72,79,65,69,-1,17,87,55,0,103,79,102,34,-4,74,54,42,-4,16,-7,34,-5,-4,-25,-11,
12,66,-32,28,-7,42,-21,-25,20,-11,-39,85,21,53,79,10,86,-14,45,42,46,96,101,-24,-19,-23,-14,87,79,-12,60,-28,
-8,-20,2,65,38,-28,46,63,-51,-81,-39,-104,-84,-84,-5,-15,-105,-48,-91,14,38,-13,-43,-35,-86,-50,8,-23,-61,-90,-13,-42,
-4,48,10,26,29,-46,-37,0,73,73,89,67,-32,89,87,-26,75,72,-14,84,-37,-15,53,-38,33,8,26,24,81,11,43,-8,
81,32,87,11,-31,21,25,89,41,28,58,75,-30,-33,52,58,-21,-40,-3,-9,-4,16,-73,-55,-9,-26,-4,-64,-2,-49,-15,-16,
-97,-14,-113,-27,-76,-66,-19,-119,-107,-118,-92,-112,-16,42,-10,23,11,6,3,41,6,27,-8,40,41,-15,3,35,3,23,18,42,
21,7,13,16,0,27,-26,24,6,16,-6,-4,-7,31,9,20,16,7,48,11,-4,38,38,-3,22,-14,46,8,15,9,-65,-3,
-3,-37,-43,2,-47,-29,-47,-26,2,-44,3,-49,-2,-35,0,-35,-48,-49,-8,-43,-53,-44,-36,-78,-31,-69,-28,12,-75,11,-6,-33,
-73,-78,20,6,28,-91,-80,14,-4,-78,27,-87,-86,-29,-28,-55,-55,53,32,74,-57,31,23,-59,73,66,13,-50,21,7,-20,-30,
54,33,25,47,39,57,-13,-42,-33,92,-1,64,48,8,18,74,81,5,36,19,87,-32,0,-7,45,-35,14,-7,70,50,-1,84,
69,65,18,-15,-14,-1,19,12,17,8,-21,-12,-19,-3,-13,12,27,9,-8,18,-42,-2,7,10,-32,-31,0,-10,-2,1,7,-34,
-26,5,-27,-21,4,-19,25,11,-39,-28,2,-24,-33,-11,-14,24,-9,-8,-23,13,20,-1,22,12,15,55,37,1,12,31,57,7,
21,26,4,-4,49,37,0,62,27,26,11,34,74,11,89,-1,-5,2,17,62,53,57,78,28,23,89,-18,72,-23,32,-2,56,
3,25,107,23,26,27,83,58,10,17,20,-4,-33,37,88,-12,-15,-27,75,-10,8,1,39,38,21,98,75,-14,8,74,90,-112,
-38,-65,-31,-110,-90,32,-78,3,-1,-32,-55,-96,25,-87,-103,12,-76,-43,-51,-60,-102,-90,28,-92,9,0,-37,3,65,41,81,5,
72,-8,-40,-45,82,-23,32,57,77,10,15,49,-31,-19,25,-37,59,30,-19,35,-36,-45,64,76,25,12,-17,52,78,-38,10,20,
24,-2,32,89,-24,-12,87,3,42,54,-75,-40,-97,22,-49,-13,-38,7,-35,-76,-1,-69,-8,19,-85,-97,-87,-1,-69,-49,0,0,
-86,-74,-29,-38,-1,34,14,-42,-78,23,-3,-69,35,3,-39,-51,-86,-15,-64,4,-61,-90,7,-72,-97,-33,-8,13,65,-48,7,-59,
73,29,37,39,17,45,67,-33,-37,25,22,36,25,-57,7,-59,63,-1,-47,-40,-55,44,-32,22,21,-15,68,-28,82,-35,69,9,
34,-51,12,38,14,66,20,-16,79,51,50,4,78,77,10,11,11,11,10,11,10,11,11,11,-55,-28,-51,-50,-38,-28,-54,-36,
-28,-3,-3,-38,-41,15,-34,-15,-31,-23,0,11,41,17,29,36,44,1,36,0,20,29,27,26,-6,9,34,15,-12,17,37,3,
4,16,33,15,35,-28,-18,19,-16,-5,-5,20,7,-31,-43,-19,-67,-21,-51,-33,-34,-49,-48,27,7,37,21,5,-11,42,27,35,
23,10,40,8,34,4,-6,42,6,16,7,-16,20,7,-22,12,-23,16,58,-19,22,5,61,1,59,-29,62,19,4,56,8,13,
64,-4,38,-28,-122,-90,-87,-25,-28,-14,-5,-72,-90,-12,-52,20,-63,-19,-93,-13,-80,-91,-33,-55,-106,-97,-63,-1,-52,1,-91,-13,
-10,-22,74,65,11,33,51,38,48,3,18,31,-21,59,65,42,46,-103,-82,-60,-69,-86,-63,-41,5,-47,-100,-80,-93,-6,-56,-52,
-67,-42,-87,2,-17,2,40,61,8,-4,-28,70,4,-15,26,-33,25,66,-31,75,3,58,45,4,19,48,1,-35,60,-35,8,29,
-7,-16,-42,-16,4,-9,16,-18,32,53,17,41,-23,24,-22,14,5,50,-9,-14,81,1,-18,34,40,-38,0,-77,-75,-24,-45,10,
-74,-39,2,-27,-26,-8,50,-21,-12,-18,56,-18,-10,-33,-8,35,57,-15,83,79,-12,-12,6,8,-5,5,-33,-10,-11,-78,-76,-90,
-3,-96,-36,-49,-83,13,8,9,9
};

int16_t biases[13] = {
-5942,-11595,17756,12040,6527,6484,-3339,11630,15623,12592,711,-171,-561
};
